{
  "input_shape": [
    28,
    28
  ],
  "preprocess": {
    "scale": 255.0
  },
  "layers": [
    {
      "type": "dense",
      "units": 128,
      "activation": "relu",
      "W": [
        [
          0.07143301247018145,
          -0.15595933446066818,
          0.04318797768359239,
          -0.0247998763068907,
          0.09888901588127465,
          0.276069990125711,
          0.08473740860115096,
          -0.09032175497239942,
          -0.005968892045904631,
          -0.075250565881332,
          0.13599798340149344,
          -0.10522316761861072,
          0.009901774258384071,
          -0.06758149346279556,
          -0.12315618359575052,
          0.04337300687550222,
          -0.030276531369695533,
          0.058694889803806716,
          -0.10301185760206232,
          -0.08566722955814045,
          -0.011805133886668996,
          -0.25304198052332777,
          0.039932089010531815,
          0.08925419845733379,
          -0.02619097207841625,
          0.0865274350595559,
          0.08918488598517865,
          0.042533386305105156,
          0.012445166833937286,
          0.07341783192111813,
          -0.04094300309221206,
          0.08749066727570715,
          -0.13210092944688476,
          0.14323899354462527,
          -0.121635017044456,
          0.09157757175417086,
          0.12020791624109534,
          -0.01909175744237641,
          0.08398851738077624,
          -0.022418311648172456,
          -0.013867548064685398,
          -0.0770128224199976,
          -0.03656167964065958,
          0.16562790520439785,
          0.026979999408980174,
          0.05649766932932172,
          0.09947048457304393,
          -0.02329517833863186,
          -0.09046151020753246,
          -0.1866609078029362,
          0.08886827352369127,
          0.021426957048710935,
          0.05437655240119036,
          -0.10687474985032158,
          0.14602877389707997,
          0.016539149964637737,
          0.04483259695491407,
          0.0565641418136869,
          -0.1037587903286677,
          0.12556259311274,
          0.06502257422908145,
          -0.09289588348165652,
          0.019769193130847268,
          0.005743116785606602,
          0.07010718033973697,
          0.1819070261616715,
          0.12408705621803505,
          0.05757305660278794,
          0.1168094258367475,
          -0.13049583468856502,
          -0.003541293329680817,
          0.17160430048587072,
          0.001530151768602009,
          -0.09145738175151188,
          -0.11951398766059762,
          -0.07354132036941444,
          0.1337898540737037,
          0.03493357907069451,
          -0.1297547190776985,
          0.12742696417392216,
          -0.12268374041252035,
          0.005730752478750396,
          0.03870299042832387,
          0.264562916686527,
          -0.06954808660020273,
          0.012052078987539044,
          0.04956039991527502,
          -0.03854012832430903,
          -0.19489859766993017,
          -0.2037774496196345,
          -0.16773556121240452,
          -0.08673006474535704,
          -0.01716810702098161,
          0.013996719715931914,
          -0.06896225434318734,
          -0.031793840212018906,
          -0.1369453406262428,
          -0.006348759261414597,
          0.08231483459456536,
          -0.159631164195578,
          -0.031783821538093684,
          -0.14415961449377876,
          0.02785185986304996,
          -0.005372613096758244,
          0.08198337625139435,
          -0.07126186948567058,
          -0.13879613035263696,
          -0.04621536117724284,
          0.013958432444718179,
          -0.04813917158807748,
          0.16436651044715087,
          -0.02871769139109001,
          -0.23091440933610463,
          0.05547111065066889,
          0.32473967624874844,
          0.016539060699935427,
          -0.24750367480147323,
          0.02021948692314502,
          0.06163066608463267,
          -0.031683884202994256,
          0.007797644573728688,
          -0.015428079199835971,
          -0.2039315055813046,
          -0.08461010971967736,
          0.08870294852795649,
          0.06790206527711483,
          -0.06712031959123137,
          -0.08121135291235484
        ],
        [
          -0.07681332716332166,
          0.024614278922671807,
          -0.15716440449867863,
          0.023167247228470363,
          -0.10645038229453388,
          0.031569602972180845,
          0.10639992827611189,
          0.042296767631543664,
          0.02862528821434336,
          -0.12553598242976216,
          -0.10900071816507449,
          -0.03239812529135026,
          0.09270628715878036,
          0.16952679613898652,
          -0.04370767525222236,
          0.08743679409307975,
          -0.0321239184087441,
          -0.036775334973144835,
          -0.044644948913152294,
          -0.18730632066903138,
          -0.04192003976363129,
          0.04776027067103449,
          0.02841724684698641,
          0.122731216366734,
          0.16085187683955135,
          0.15449325848990664,
          -0.016955317349753227,
          0.1164259326367224,
          0.1681327734096417,
          0.04913991544910852,
          -0.07990866301257153,
          -0.05598283690022376,
          0.12613039203990564,
          0.11214244940685139,
          -0.0765085430759154,
          -0.08495825107025358,
          0.07108666119117195,
          -0.04359430635328447,
          0.03526858244343747,
          -0.24352575191451686,
          -0.01460467221758201,
          -0.04357859392142682,
          -0.07726655018610112,
          -0.095527299461449,
          0.11794430762990725,
          -0.0005849147706979792,
          0.10008541821378956,
          -0.0349176216003284,
          0.06229616783861347,
          0.1796211522052627,
          0.11888810110185062,
          0.17093703759763815,
          0.040739812952260236,
          -0.0631121038462276,
          -0.14179913216529702,
          0.13283372351126055,
          -0.05395913289643417,
          -0.12118759944757358,
          0.02784719571904164,
          0.05049925826511351,
          -0.14414623398805673,
          -0.09240338756333172,
          0.07616750955670912,
          -0.1292342092817265,
          -0.1445711346405685,
          -0.022916467579326083,
          -0.053384901054116946,
          -0.0449785599900898,
          -0.04087224936144983,
          0.004590180070362799,
          -0.04612263653441457,
          0.07208315518477292,
          0.07354717172509102,
          -0.09218404180089337,
          0.06302811078366999,
          -0.07054125257235021,
          0.03740527189873988,
          0.13422706804240386,
          0.0036771738020953885,
          0.24697709661487993,
          0.21974445608761084,
          0.024617683428841294,
          -0.0019625381586932424,
          0.04486427311443594,
          0.08435536610868799,
          0.10726906381909024,
          0.011472978656549802,
          -0.10953212431771153,
          -0.015271375102872046,
          0.016106508680337746,
          -0.034234360872398874,
          0.12039939969697647,
          -0.010823757162354442,
          -0.02171347526026804,
          -0.14600243720866934,
          0.08835074597230225,
          0.1119530610416683,
          0.18348673931512932,
          0.0319304111625793,
          -0.12266872299167293,
          0.023691163729736685,
          -0.035945926294979356,
          -0.1326587997316393,
          0.01675132095582756,
          0.05819416925931094,
          -0.05232346488392327,
          0.011393258477300425,
          -0.1013376468871921,
          -0.014619931809442946,
          0.04272204486864956,
          0.02503800247697191,
          -0.05798878406217505,
          -0.08592213577413987,
          -0.05330384986769923,
          0.1127601795839268,
          0.010177555482232524,
          0.05741379625327267,
          -0.0975851007384826,
          -0.056288328999281545,
          -0.10190351888529248,
          0.07113834072350608,
          -0.09744043983595788,
          0.16337555294660577,
          0.08267308331214955,
          0.08207744263850435,
          -0.07799474429146037,
          -0.01004777033669012,
          -0.19397082362393803
        ],
        [
          0.007101000169879407,
          -0.048695674096351546,
          0.05710152831597422,
          -0.08946143838307374,
          0.011834888183174276,
          -0.04709526004412817,
          0.16748005975034597,
          -0.00957059323458243,
          -0.08872558952741479,
          0.14939902104409286,
          0.011826462887182324,
          -0.1594437766678816,
          -0.1060176910035464,
          -0.026156015360274745,
          0.23098601271289132,
          0.16330066323275563,
          -0.11541490446646557,
          -0.07699813484914132,
          0.16331237416691974,
          -0.033392132620379426,
          -0.16750928289694375,
          0.11853536385079921,
          0.20785512971114195,
          -0.1010610036833572,
          -0.16999796732242745,
          0.12564688359344084,
          -0.06562682405264117,
          -0.11732190613291467,
          0.10914002939909749,
          -0.1576776410264863,
          -0.1469092507812154,
          0.14309768860676172,
          -0.006887288692171642,
          -0.025906725614110934,
          0.06439243055813294,
          0.10297314863917613,
          0.06591343427878764,
          -0.06906999382544508,
          -0.05548228349560681,
          0.08079971402889441,
          0.12317382259665006,
          0.04394469361398598,
          -0.033179805096086416,
          -0.13414060104039002,
          -0.14405568001787625,
          0.026614892061057167,
          -0.006212525317900529,
          -0.0728770275745612,
          0.05680689670092989,
          0.2539991049605165,
          0.05016769699830333,
          0.010975798068740937,
          0.0720985788651237,
          -0.01482702462328648,
          -0.02937908550531035,
          0.0791681246896171,
          0.06740916007639537,
          0.08214537203176896,
          -0.022963803163227534,
          -0.05277492460538437,
          0.07037395926638065,
          0.03500544496699567,
          0.1099434774292235,
          0.0738994047526297,
          0.03780499540274407,
          -0.12353647469123355,
          -0.18647358678571926,
          -0.09278498691091686,
          0.003501493740303744,
          -0.034778848950553186,
          0.05197654134789775,
          -0.08015125070581382,
          0.09521643335959191,
          0.035789930031299516,
          -0.01886130393551674,
          -0.17800269567418095,
          0.04093804146751061,
          -0.020810160856104234,
          -0.13671178201382195,
          -0.0005254242038138699,
          -0.130051857964468,
          0.009375177209840579,
          -0.07339513453528697,
          0.0988080342924495,
          -0.07170401819979362,
          -0.045937707355638714,
          0.014467861851249923,
          0.00546006637965776,
          -0.19536898080052212,
          -0.16579182022561598,
          -0.07432178918475078,
          -0.013810006788310614,
          0.01889014759231579,
          0.1535790972773753,
          0.2521479098620334,
          -0.12831285880112903,
          0.021516014317015414,
          -0.010070448827025439,
          0.10095276782143979,
          -0.011078869959995694,
          -0.23403485615172193,
          0.008296542244576873,
          -0.012644312254021321,
          -0.05259387023722089,
          0.1292157477037876,
          -0.08547331194551212,
          0.03797064185946811,
          -0.12146965957184229,
          0.002748257969731495,
          -0.00020094934446235934,
          -0.059349629655534156,
          -0.1614291459406061,
          0.005255494519144697,
          0.01773616761267076,
          -0.09875311694499579,
          0.02918607831164932,
          -0.04438955734699236,
          -0.06620469382844812,
          -0.1414276192525428,
          0.0761354019062426,
          0.021496218116613567,
          -0.06167334941247752,
          -0.06652497527605349,
          -0.14829825743599886,
          0.16262178784097392,
          0.016237110388926886,
          -0.11055964463026896,
          0.21516684526971128
        ],
        [
          0.009040080757069056,
          0.019437062955747042,
          0.08771346080936418,
          -0.01598776055363214,
          -0.017395352004948246,
          0.12284079025087319,
          -0.07391238770475463,
          0.01766368579040117,
          -0.195271592055553,
          0.09531514528230431,
          0.024995686663701583,
          -0.14769089406293928,
          0.17306953150551577,
          0.2204751361519134,
          -0.05815154394941028,
          -0.09102196256839029,
          0.11698111795828586,
          -0.07639240182320339,
          -0.16554381615806435,
          0.03027320822680998,
          -0.012633067339173083,
          0.12699969986978893,
          -0.030091230928467924,
          0.023454849818505416,
          0.1353382082317261,
          -0.06935375780087302,
          -0.01654851290522121,
          0.16404819365795265,
          -0.03235790255038664,
          -0.0008217941154558541,
          -0.02337961979267139,
          -0.09456481362300084,
          -0.1216887603741659,
          0.07501172493522883,
          -0.1365357565735767,
          -0.05534344121762912,
          -0.11480913727076487,
          -0.011814461779792541,
          -0.005452551750982897,
          0.04851308104216085,
          0.15557180210988247,
          0.018748112889337115,
          0.1520570537593795,
          0.0718241757856605,
          0.15686113918267075,
          0.2796974938959093,
          0.004201523183355048,
          0.054870990837229384,
          -0.1529158326363713,
          0.23897839421632275,
          0.013985389873393976,
          -0.11568491591606207,
          -0.1167314716052163,
          -0.035731091095719605,
          -0.03165107225540363,
          0.08872390752311918,
          -0.0397794645321921,
          -0.10881231438498046,
          -0.1080166184055361,
          -0.015378581996491706,
          -0.16691592698740815,
          0.027946504177796306,
          0.010594865787618979,
          -0.0010881792502244155,
          -0.012806170885092606,
          0.0016548617276506148,
          -0.02910613109445528,
          0.060319323780434156,
          -0.09145397289245881,
          -0.08770051123768147,
          -0.1533716026196006,
          0.043330574492976816,
          -0.0431067271014388,
          -0.03160806878369983,
          -0.09208109985007758,
          0.09519823601666637,
          0.06505632187517285,
          0.015242468114969139,
          0.10101354541515775,
          -0.11164538899375145,
          0.03600693797785273,
          0.2075402449041521,
          -0.05908687267199795,
          0.03853259940163611,
          0.015111217814206252,
          -0.10002524234878454,
          -0.04773939424842136,
          0.0591959513541415,
          -0.01599637032656733,
          0.06366106121275053,
          -0.12727745793716597,
          -0.07907158655612471,
          -0.07401662335423896,
          0.22086063869071643,
          -0.19457717168793137,
          -0.0707931864633183,
          -0.059426776085021074,
          0.19040413823805952,
          -0.02321675733269955,
          0.05660690455090714,
          0.06623370297113755,
          -0.08873097632496842,
          -0.15271578976429376,
          0.0044723730649730955,
          0.09601781052702256,
          0.04309465900254671,
          -0.1088901930902465,
          -0.1553361708698467,
          0.003993812352203354,
          -0.052346448672898296,
          -0.01743022728005336,
          -0.05850156151600368,
          -0.2251464527816626,
          0.17526393105903249,
          -0.09849792419808287,
          0.07752712793401259,
          0.07048542851579276,
          -0.10053812025464377,
          -0.18031786874052344,
          -0.12842055313027423,
          0.14279008927783876,
          -0.017011608439768906,
          0.04723573665019631,
          0.037930771954604675,
          -0.053968285465004644,
          -0.0761966177240544,
          0.018961384785130608,
          -0.0018860897121774967
        ],
        [
          0.15127555773123974,
          0.048249405727970714,
          -0.2309950457863666,
          0.05127604802996458,
          0.09558538765609893,
          -0.17065988513246685,
          0.06552032831919495,
          -0.022969124347755734,
          -0.01050697737301889,
          -0.011724569276574308,
          0.047303881134371124,
          -0.030732834752875055,
          0.057109479270246066,
          -0.0486983364969685,
          -0.04580227200708159,
          0.05147997106459665,
          -0.07848594005758706,
          -0.07904907213015366,
          -0.028159540687524832,
          -0.034281102524880286,
          -0.09668357283664974,
          -0.027896987224537834,
          -0.12329133905149717,
          0.06063121160001642,
          -0.06439624563075567,
          -0.0017816381314320674,
          0.01309524240430196,
          0.09884534146791746,
          0.012271208587900161,
          -0.028526469394221838,
          0.04055629838852347,
          -0.08694604155894985,
          -0.135379725016483,
          0.04696057187765902,
          0.015414106838210685,
          0.002507550451039458,
          0.046918686898373994,
          -0.10687099835696377,
          -0.0067136551222134085,
          -0.11576462795633793,
          0.07968394484766839,
          -0.14784792224018764,
          -0.1823033288598845,
          0.09562351927812975,
          0.11362914136585014,
          -0.02077680688895031,
          -0.04176155822228749,
          0.06461338712137298,
          -0.1263993758899397,
          -0.1005158226290634,
          -0.16285932940375614,
          0.021368751572868085,
          -0.04280092223202478,
          0.10606634558364605,
          0.02305341443560147,
          -0.04193305118676204,
          0.16524890351485244,
          0.14615230497304152,
          -0.09042898796962058,
          0.0016589261057465112,
          -0.16922532085052588,
          0.07606479498808033,
          -0.0796445105929335,
          -0.13626692195395168,
          0.1488756568811128,
          -0.010874230604184196,
          -0.03897586231970133,
          0.05332013188256161,
          -0.15434119744741934,
          0.17697807129018397,
          0.29097604446164244,
          -0.04933293509829369,
          -0.009956061826990943,
          -0.09055305793420416,
          0.09914954327040881,
          -0.042281936025260564,
          -0.03695604646489768,
          -0.07003455528495081,
          -0.15121007174586948,
          -0.09615773362828042,
          0.003382984525389287,
          -0.09828104651271628,
          -0.009712890360900858,
          -0.10082524781246412,
          -0.019398901224629353,
          -0.01033158707148326,
          0.03075082492283416,
          -0.09303607330683089,
          -0.02828686641832498,
          -0.07159286165445188,
          -0.1099912358898902,
          0.040874380305684715,
          0.036292713013084406,
          -0.006299971384190171,
          0.058392726457006286,
          -0.12167385141156915,
          -0.015126823894605228,
          0.11321882377951153,
          0.028236916072033498,
          -0.09152248014395126,
          -0.024701446409055597,
          -0.07131816930857135,
          0.04733461470460709,
          0.05516515875874294,
          0.2055875781240959,
          -0.011458630566645936,
          -0.014571485672323616,
          0.11248694933324804,
          -0.01906437964518772,
          -0.03468289655506876,
          -0.10054598405172187,
          0.17160059883469497,
          0.045351440283428725,
          -0.01832265434922339,
          0.23720180811325858,
          -0.03467263555273284,
          -0.04512331549269654,
          0.023835195272262563,
          0.012047726792624412,
          0.1404407492487977,
          -0.06826409382809272,
          0.007685865645558673,
          0.12062318117900983,
          0.04425357671226173,
          -0.12323534795114575,
          -0.008651538516866493,
          0.03657343942496489,
          -0.11816502013795525
        ],
        [
          0.08599174277410289,
          0.089229304379109,
          -0.06699511507127996,
          0.01638901958234033,
          -0.2082258846330367,
          0.09593925206628662,
          -0.09988004659644444,
          -0.12312002408123585,
          -0.10615608161523855,
          0.06501116672324048,
          0.21216799927703267,
          0.038228340599703974,
          0.05603041268537932,
          -0.01886461792650332,
          0.06400909149026514,
          -0.14764649163707447,
          -0.05668004417730399,
          0.03832078928956759,
          -0.03304932212192372,
          -0.17353209884933596,
          0.11417414624739622,
          0.018935280408714388,
          0.07445728429826191,
          0.07330634022166031,
          -0.024192768483997158,
          -0.10710129508172546,
          -0.01960307561410713,
          0.053812161150966764,
          -0.11443940312099424,
          -0.044813492397564686,
          0.01937096621219412,
          -0.132623726148477,
          0.05757265480149568,
          0.21688614808876705,
          0.08656971061858476,
          -0.06928731908884253,
          -0.04233364870948825,
          0.035491574309949425,
          0.025987531462028774,
          -0.05975274249270281,
          0.09421370462593945,
          -0.2372676508508707,
          0.08751751192662995,
          -0.1019857073432753,
          -0.019810174909338667,
          0.06844636827955895,
          0.10059416809350825,
          -0.03715343302929236,
          0.09583522695843354,
          -0.1010021883578932,
          -0.0465935009665642,
          0.109744043696893,
          -0.0170124951490623,
          0.1314069541789575,
          -0.052574603334122075,
          0.005173395118545388,
          0.006469075808486791,
          -0.07755272560812342,
          0.03379685681812611,
          -0.025044089722281716,
          0.09847788056574,
          -0.13652467093054887,
          -0.09998588997747619,
          -0.042586388263453186,
          -0.06418724274098933,
          0.20943995058689646,
          0.04520578332296023,
          -0.005550769897712902,
          -0.015850345300095957,
          -0.14088543728242683,
          0.06373607448202741,
          -0.05138898873213197,
          0.05251847553852695,
          -0.011596504516816653,
          -0.011657998579917525,
          0.006104086024749666,
          0.06978146647964466,
          -0.03716482077978114,
          -0.10704857622936624,
          0.09155386917684138,
          -0.06534920635854712,
          -0.12327439138373791,
          0.01297931418310461,
          0.10282533319849421,
          0.05110889347955449,
          0.08838739662241629,
          0.13088910252379135,
          -0.029251156987878377,
          -0.04313875534782626,
          0.10672000753619833,
          -0.05752542498854343,
          0.16057575678346978,
          -0.07535229138469063,
          0.19571226697125235,
          0.06642536728384352,
          -0.06952375949708742,
          -0.0005366828043714708,
          0.16102088423125638,
          0.12358526830707382,
          -0.08678476551848863,
          0.1656069943473739,
          0.052466404447447795,
          0.13397965769227313,
          -0.0864651391947159,
          -0.025316065968151415,
          0.07615457263972578,
          -0.06682984323691328,
          -0.06637543133485489,
          -0.11845175051431987,
          -0.01518960182965597,
          -0.15674911537557687,
          0.09647755232193374,
          -0.036559392181075116,
          0.030398855588751824,
          0.0667356423030207,
          0.13309184098736354,
          0.10211130642737294,
          0.10196096605758034,
          -0.04061019509963525,
          0.06480252701325305,
          -0.07403890444312787,
          0.011471772199343316,
          0.14255917190221884,
          -0.25935673737876924,
          -0.02890223757353204,
          -0.07859087438641976,
          0.0009624520741576333,
          0.0721473333022747
        ],
        [
          -0.0869128837521128,
          0.13010956821106293,
          0.01610231849575301,
          -0.08507127370246088,
          0.0440030968786226,
          0.18618438825696254,
          0.08842149081893906,
          0.039586629462732816,
          0.09880548186434057,
          0.18999087309440257,
          -0.021791327946991127,
          0.0562304589616947,
          0.15588684680465914,
          0.11435889288419553,
          -0.05494599499384859,
          0.05410698924345219,
          0.008920846525025797,
          -0.1161067599562619,
          -0.05122327808700799,
          0.05844036301507852,
          -0.07166221021990825,
          -0.03426202230277696,
          0.19624424324497586,
          -0.05547310588027163,
          -0.006042669041003911,
          0.04794379874373003,
          -0.03761418152236025,
          0.027591348728524742,
          0.09201089295074569,
          -0.15284387150494158,
          -0.11172258659955257,
          -0.0398084622917642,
          0.05987933400916874,
          0.08666901547913469,
          0.20153639906733592,
          -0.02953259736087078,
          -0.14979999328136961,
          -0.03523908968293746,
          -0.12591979186854033,
          -0.0737982207035604,
          0.09248476014320475,
          -0.1266140414183982,
          0.04458722663014555,
          -0.10710589129951376,
          -0.019159552680618763,
          0.07436877569537383,
          -0.11380201504878609,
          -0.06463771861901267,
          0.03331103628504418,
          -0.18755457370385667,
          0.10288443143775626,
          -0.040884877023660074,
          -0.019058558301552498,
          0.13516534753875958,
          -0.1411617465359813,
          -0.008412933897220405,
          -0.06299950615820527,
          -0.16782707956901313,
          -0.07224237220072287,
          -0.07223373262666474,
          -0.12782701795417178,
          0.05722365974826809,
          0.041202197842805544,
          0.049580238322591313,
          0.06861598254734344,
          -0.1920184401449778,
          -0.08543869341402512,
          -0.11388553972216614,
          -0.16340577127744557,
          0.2070869709923073,
          -0.09414438085579566,
          0.09861449107601872,
          0.019507401343785584,
          -0.046312969803272576,
          0.020816629132971064,
          -0.09032498505621767,
          -0.00834781386782956,
          -0.030791696071354485,
          -0.1623543171978256,
          0.034446743222565225,
          0.11294509286697577,
          0.023924465172465038,
          -0.0362870033382119,
          0.04542240997657299,
          0.019058853047969643,
          -0.02782221271327083,
          0.030158579581003226,
          0.07084644743340394,
          -0.08396652630682981,
          0.004279990077745831,
          -0.1632462406170807,
          -0.127473486157568,
          0.005148234568476146,
          0.016502174052906406,
          -0.03032531235741557,
          0.029054468876919554,
          0.1341603269267516,
          0.06286345109043039,
          -0.1994766501216222,
          0.06856319103117653,
          0.12273691674629482,
          0.04983173499326265,
          0.1977729398114778,
          0.024854817037885685,
          0.061923663707661385,
          0.025999349342419594,
          0.11976068921289676,
          -0.11871961137398053,
          -0.021542799907649447,
          -0.003186743164244995,
          -0.15857911925128998,
          0.0034451390333186853,
          -0.08473772314630444,
          -0.14229589984839883,
          -0.08374034902197998,
          -0.009736952475280634,
          0.06225247303394074,
          0.07473868912893121,
          0.04268120308996916,
          0.11782445047028006,
          0.05112196036967838,
          0.06657083267513733,
          -0.01395497078694493,
          0.15169248662087637,
          0.06151113882012112,
          -0.015509545023249608,
          -0.01473647905400225,
          0.034504881452936065
        ],
        [
          -0.09990130511199467,
          -0.013949586979564214,
          0.007303533657303196,
          0.06491379826163339,
          0.04516237057797583,
          -0.09192790175410087,
          0.18942080857191018,
          0.08343978079792652,
          0.209260194396159,
          0.012341171559012156,
          -0.09654868749454637,
          -0.002354796805158933,
          0.16090138947556273,
          -0.13062465528862957,
          0.01965240731487032,
          0.059101824574054634,
          0.04549302901721984,
          -0.06042371519343083,
          0.03937237906586818,
          0.11483874364900533,
          -0.14610330786342418,
          0.1307772124604661,
          -0.008206516418610693,
          -0.04776169370468605,
          -0.01939721777088862,
          0.058791004345977366,
          -0.08458620493627395,
          -0.007131218787206174,
          0.10215146052458311,
          -0.1574078012492926,
          -0.06429093175851666,
          0.02126779797782624,
          -0.028498713393988268,
          -0.0918632635866222,
          -0.0677513485047202,
          -0.04969039899330416,
          0.07084081355663262,
          -0.1352144200675198,
          -0.02043091006587084,
          0.0998650810180453,
          -0.11194229212952184,
          0.02915354270472862,
          0.0175743744840561,
          0.13680147268157342,
          -0.13268269115521844,
          0.14089176604026618,
          -0.13270306324190448,
          0.1730001747425861,
          0.015597514920908655,
          -0.024326942527984445,
          0.018309513761046815,
          -0.15346263612437916,
          0.14029375944734584,
          -0.10666097475788042,
          -0.12819878357958867,
          0.009434566283824079,
          0.1151860681105593,
          0.1830667668146534,
          -0.054464471032616014,
          -0.02342095597395208,
          0.0361589356758066,
          0.00309455964823715,
          -0.08366480852108306,
          0.09234144288827259,
          0.049981169541569816,
          -0.18669357881904325,
          -0.10146702427521603,
          0.03854840038710705,
          -0.010377665202932526,
          -0.030390884892032878,
          0.008790718992991638,
          -0.1416200377682399,
          -0.06111890416460686,
          0.06754746770357502,
          0.0364447012346488,
          0.17540568384068916,
          0.008124895459562109,
          -0.0027933941314126054,
          -0.029678049690959687,
          -0.04587163284363512,
          0.10168226476137676,
          -0.11588447240400919,
          0.013364681716194163,
          0.09118853545809714,
          0.00039415409976297357,
          0.09507114481336479,
          0.019059416565479465,
          0.1596212406683507,
          -0.03160854603693141,
          0.11823235144921083,
          -0.081940923764168,
          -0.004720736645609891,
          -0.16228003296707183,
          0.2438789921073403,
          -0.015763555713133308,
          0.09485023907913114,
          0.017364919297808857,
          0.030280254106329865,
          -0.09992038826002514,
          0.03843701415877823,
          0.05809846404945749,
          -0.0013598461027567162,
          -0.15076968311774716,
          0.01593096220539822,
          0.05001361463369476,
          -0.010281708122936863,
          0.05417978744550542,
          -0.05113616323723309,
          0.16252088451307875,
          -0.04927210122221542,
          -0.15616357845404297,
          -0.033299417137272525,
          -0.059024198123715246,
          0.05960166935539877,
          -0.025102757113785592,
          0.06627282600479077,
          -0.017098317338972085,
          0.14882279889865413,
          -0.14180229731249144,
          0.07318823740370668,
          -0.07320468895924505,
          0.1461899659393974,
          0.025549733399184267,
          0.024064301625299975,
          0.13981609913734563,
          -0.05028954857421217,
          0.07623080212301929,
          0.04811253733480764
        ],
        [
          0.13086983097712812,
          0.06958174461318033,
          -0.0746488491793339,
          -0.06303683305801126,
          0.06976670715356201,
          -0.16672698484721624,
          -0.10704554525956966,
          -0.06069483839305287,
          0.13616802545297887,
          0.1394928613176363,
          -0.16237328382053332,
          0.08907224484222828,
          -0.008012917261383706,
          -0.09616041433637121,
          -0.08106033826031406,
          0.11697395331217271,
          -0.046394758084124715,
          -0.1714397241302715,
          0.05850810095291025,
          0.08972380285134203,
          -0.19949618165500016,
          -0.1158259937372994,
          -0.05959745178838219,
          -0.17738478836751184,
          0.17477475491716177,
          -0.010214271134809437,
          0.11397041193313631,
          0.02337150988763409,
          0.01752564126020671,
          -0.011709219793498845,
          0.10138005013861667,
          -0.041604387407743616,
          -0.21704655608629483,
          -0.14481322701422164,
          0.1834247197669383,
          -0.05768852994413645,
          0.08391046014838865,
          -0.03421427261917514,
          -0.01619688105001246,
          0.02574827487980414,
          0.13388572313978997,
          0.10493390236588573,
          0.06527137468248498,
          -0.06768897052259285,
          0.038091248470485506,
          -0.048767363802267275,
          0.09688717266537818,
          0.04638957481726309,
          -0.06330078480047668,
          0.030745775863057608,
          0.03908255984158546,
          -0.13481613055715827,
          -0.0001472203032084387,
          -0.018292513489962168,
          -0.09727064252636064,
          0.03917896075855548,
          -0.056240805401181475,
          0.11450684426693698,
          -0.20105830044265766,
          -0.04675134759547626,
          0.23469421419198802,
          -0.04444907108572794,
          -0.14257864034484072,
          -0.22765660787930472,
          -0.1182427035011539,
          0.1489056369042852,
          -0.010979685309754622,
          -0.036816371824791035,
          0.002796559200893531,
          0.13775898712971846,
          0.16783937368886867,
          0.10838792272853373,
          -0.19789346725390988,
          -0.1316625706608043,
          -0.0880657935293074,
          0.019244528699390754,
          -0.09216158979136685,
          -0.22025284987551885,
          -0.12091425664927231,
          -0.040571967385470815,
          0.13407195037927638,
          -0.03961791612772854,
          -0.0699167197247769,
          0.12051296395078613,
          0.1807152063846846,
          -0.1504833554549296,
          0.010973033717137443,
          0.22934274737001897,
          -0.028677829387284127,
          0.06705496728586488,
          0.08451131384183769,
          -0.09486723680367709,
          -0.012349950219681431,
          -0.0432103621761933,
          -0.03306623727594485,
          -0.046265255247937016,
          -0.01873156939619108,
          0.1371982514719143,
          -0.17160807708489326,
          0.12308130640512427,
          0.05788112447535859,
          -0.011352098488372939,
          -0.0051943030625357395,
          -0.00166341818181815,
          0.06736226268738703,
          -0.11047126005140931,
          0.021755191903846536,
          0.08907316892242964,
          -0.09918101931214031,
          -0.0268495014486001,
          0.1019737751215685,
          -0.04357975166283845,
          0.10757941943636853,
          -0.02011229841167691,
          -0.14278236953959542,
          -0.08745188896140299,
          0.011890950161653917,
          0.10136591972243952,
          -0.08450109230212131,
          -0.06881090778625712,
          -0.09197351494969042,
          0.06424163431123231,
          -0.06943720569284294,
          -0.01626957589425086,
          0.008997107984120475,
          -0.04716794119970404,
          -0.05905951511239882,
          -0.004192873164253545
        ],
        [
          -0.13448770977514174,
          0.2838425167639444,
          0.010051787166600087,
          -0.2088802887877361,
          0.002410268126452799,
          -0.006481327829547967,
          0.0637120343173337,
          -0.0033878595072441412,
          -0.15175587812802896,
          -0.14223712131004437,
          0.051645897265354915,
          0.11644988211751078,
          0.20229908762595078,
          0.10692967614678198,
          -0.011432099623939006,
          0.15220991438020343,
          0.06918223096345398,
          -0.13041336480537688,
          -0.1657816139259468,
          -0.05176544500261809,
          -0.025574417941037597,
          -0.005952364640765089,
          0.0031636658897444183,
          0.024162601385455697,
          -0.01975727775808747,
          0.06083972781186428,
          -0.02328581751257444,
          0.09907265031169721,
          -0.1354322256290164,
          0.16942462214933054,
          -0.020442194137976183,
          -0.13195170210880192,
          0.05239208892539981,
          0.14940557524043732,
          -0.06354859085541546,
          -0.10027041467594358,
          0.10754711698286375,
          -0.07486280432838298,
          -0.017912593353467614,
          -0.10453356990808245,
          -0.09747848167833764,
          0.0737583178382461,
          0.24626348262983022,
          0.023789934871839384,
          0.23817950831536985,
          0.027597235587518667,
          -0.03231540660671261,
          -0.04651838141067505,
          -0.17710412629003383,
          -0.06300135467716585,
          0.09594621225887345,
          0.08305004214460421,
          -0.20391521523909614,
          0.05923621870779122,
          -0.12316395286904343,
          -0.0911543476922411,
          -0.03935206373660845,
          -0.290994750478561,
          0.05203279349049892,
          -0.03257943811208108,
          -0.18903231035321522,
          0.0511794079730245,
          -0.029147083541567392,
          0.09675776139325687,
          -0.15738930534699336,
          0.020821234912751996,
          -0.16571603028111812,
          -0.12957781960568443,
          -0.21795731298408186,
          -0.004179573594010139,
          -0.10884288415770454,
          -0.006747760023225236,
          0.0761562149533102,
          -0.008200232274790699,
          0.193444283406944,
          -0.0019043188034750282,
          0.024480628707107568,
          0.041908983006575015,
          0.144013899260021,
          -0.013630756004695403,
          -0.03610057936529106,
          -0.05690584876057873,
          0.11249059481674908,
          -0.011734652768247396,
          -0.15128538245975925,
          -0.0031778188744074017,
          -0.0914701282176519,
          -0.2861544612751023,
          0.18289040762017428,
          0.1514238694559776,
          -0.0070348509519929485,
          -0.11861949063012855,
          0.08962515436274476,
          0.003129158138390654,
          -0.020020264137943902,
          0.08950440210711921,
          0.018322155083916873,
          0.07009805776981623,
          0.09696374396632479,
          -0.09223013352977234,
          0.0984716257209696,
          0.15460022057077916,
          0.08288387194261292,
          -0.091339861572384,
          -0.028115973579187426,
          0.04042882084297373,
          -0.034984109977410555,
          0.1633742151916574,
          -0.24796126097897903,
          -0.0007277889018708779,
          -0.0899835738509217,
          0.1263854885184112,
          0.009419526202326611,
          0.0976899213774823,
          0.037966623934054644,
          0.08118957711533499,
          0.12334345027102592,
          0.009397309212475639,
          0.04111104001399976,
          -0.06477846903146002,
          -0.10644640510125938,
          -0.06570814610237256,
          -0.08553134113634439,
          0.16800918754137506,
          -0.09738749932307655,
          -0.004017705404991427,
          -0.14134888686428332,
          -0.0630201405654621
        ],
        [
          -0.018392481758196178,
          -0.04558026177016317,
          -0.04199111089823845,
          0.027248777185783613,
          -0.0822923912091676,
          -0.05772648024567876,
          -0.026259806472574546,
          -0.12670565416962062,
          0.07272765877784279,
          0.030168977164147792,
          -0.19213422652997794,
          -0.10869114251204409,
          0.016633828562797524,
          0.18116143834064427,
          -0.0036911328421897413,
          0.03861915234783771,
          0.004993025775310432,
          0.04524516755040246,
          0.09687166053190102,
          -0.08216531107116691,
          -0.013306111344165218,
          -0.024785195190732016,
          0.060102790352788295,
          0.03954077362558059,
          -0.04608699584584784,
          0.0679863778783639,
          -0.07891683798320313,
          0.19485887337255176,
          -0.005393226382101718,
          0.0072230240809915735,
          0.08365450120929158,
          0.038443572878447796,
          0.059709098821409914,
          -0.01341918074593258,
          -0.0664794126838059,
          0.053742850917066314,
          0.06912462148560027,
          -0.05151413499264223,
          0.06173085176653068,
          -0.00952050944219204,
          -0.05322662326285587,
          0.057757372500415995,
          0.11180921316825501,
          0.07606626772257274,
          0.12053608451844931,
          0.09178080797100047,
          -0.038860918595286724,
          -0.16551111231458715,
          -0.013016246269272525,
          -0.006809986157781055,
          -0.0006073806315151792,
          -0.13567758435787827,
          0.24745404344236374,
          0.002593831856142025,
          0.17576022847192654,
          -0.007770270840574119,
          0.055764102290333656,
          -0.1198452413273067,
          -0.07753327064577833,
          0.0036991444672672875,
          -0.03922427953845671,
          -0.12124001252676345,
          -0.011344290655596475,
          0.2115672142986132,
          0.02164670984130499,
          -0.11242272695279887,
          0.08732561959453737,
          0.06116904995945447,
          -0.0922461090944065,
          -0.015186350373968314,
          -0.200191902699411,
          0.05228579952482183,
          0.12644730149723743,
          -0.024890653403552572,
          -0.20543652438362275,
          0.10535236129198543,
          0.03943995981882565,
          -0.006281283166768473,
          0.03348271018649961,
          0.024854311840348357,
          -0.17279054510198955,
          0.017927866404356792,
          -0.11531591570983138,
          -0.044167318363425766,
          0.05460658250035482,
          -0.03728545549642993,
          0.04518877309619077,
          -0.10366443404597088,
          -0.1287396524263936,
          0.0070182164755394905,
          -0.035362698423072776,
          0.1603088727906905,
          0.13055106698908278,
          0.09984334103617504,
          -0.0908331158106193,
          -0.11422175747274242,
          0.006194580687646386,
          -0.05099074835503667,
          0.09768906932121763,
          -0.00374122330356843,
          0.104710638137856,
          -0.026629834557902316,
          0.03986571227153489,
          0.03870282889690999,
          0.043245179532363676,
          -0.08995571321644921,
          0.12391357549536797,
          0.007788313706384309,
          -0.09159971240658908,
          0.06461906555431006,
          0.1207662156601028,
          0.05226666993965992,
          -0.127779497950382,
          -0.09666511090920282,
          -0.11798742366591555,
          -0.03592267920269315,
          -0.0451088389162711,
          -0.020858933922320515,
          -0.01876319768481184,
          0.10622339633093186,
          -0.21975384090220096,
          -0.024547374621348712,
          0.052100491702899404,
          -0.07458845265341763,
          -0.09689510739937336,
          -0.008106282410776308,
          0.032710533389620905,
          0.062221447085353015
        ],
        [
          0.021856734243831024,
          0.1595094110672323,
          0.14329098537011026,
          -0.10043707383681855,
          0.15323308642817796,
          -0.08361955684411781,
          -0.057253441901460346,
          0.10002648635141438,
          -0.060949900720188355,
          -0.043670072372048584,
          -0.1254178886022805,
          0.01560813746211199,
          -0.06279739617074523,
          0.06044774236165576,
          0.14955221349777045,
          -0.1496041781673109,
          -0.1249980213127709,
          -0.011459296459095977,
          0.03838569235570581,
          -0.09010762699766128,
          -0.02258186992569902,
          0.05627356831051107,
          -0.027835650911725532,
          -0.18862314206245723,
          0.03984200625719868,
          0.05812501712231824,
          0.0202422517900863,
          0.008528709097098776,
          -0.053750369723208194,
          0.09381699374524656,
          -0.0059897977846913725,
          0.057672864365849355,
          0.10168807831638123,
          -0.020958966178837232,
          0.07892901593917327,
          0.28861338942148523,
          -0.10254958772372234,
          0.09057981763773976,
          -0.08762365293873947,
          0.07297637881028618,
          -0.056269903401439614,
          -0.062368868314066454,
          -0.06698649850990443,
          -0.09881383732426946,
          0.013701713137552668,
          0.0471576343009563,
          0.12350033846519777,
          0.02774620870626996,
          0.00417789483812007,
          0.10990856117067432,
          -0.1420228517820531,
          0.09846161650491847,
          -0.05934899026998929,
          0.21489032545530914,
          0.14213911047413827,
          0.14945150568532942,
          0.17032714948042363,
          0.0044063634507895645,
          0.17397119389883273,
          0.11406754550466794,
          0.05006477345555824,
          -0.06809120298989801,
          -0.13195013974904796,
          0.05024034640872565,
          -0.06014212837174963,
          -0.0293082437155627,
          -0.06604084064558764,
          0.10746757516978878,
          0.037251116702846324,
          7.296568048924852e-05,
          0.2176756302777624,
          -0.039967382719083455,
          -0.12918782886012667,
          -0.05208913126787154,
          0.084181739504281,
          0.08633199053610016,
          -0.004500519699528739,
          -0.055319237816513184,
          0.09184149832931311,
          0.07589776654387924,
          -0.07303475726592369,
          -0.05536646329639599,
          0.03562855678056805,
          -0.02753395467050226,
          -0.19206511352265712,
          -0.08836998401709026,
          -0.07549349307982446,
          -0.016236721055319935,
          -0.06062503487729938,
          -0.06026464359840228,
          -0.03605485849662062,
          -0.08559659935788011,
          -0.008751645300143948,
          0.03126795624903456,
          -0.020454934726499986,
          -0.013988473596409125,
          -0.07637943109902179,
          0.0726367715957608,
          0.04179286904941523,
          -0.15619432895931645,
          -0.11105804710352118,
          -0.019667568623153997,
          0.160028137809479,
          0.09077071910515319,
          -0.19580357248619615,
          0.10451160099699455,
          -0.02668596176480357,
          -0.09863820806625767,
          -0.03360756631180203,
          0.08523041682822678,
          -0.0969579404471683,
          0.00948319775773625,
          0.07909617709943949,
          0.06201045474605708,
          0.09538061008663239,
          0.06585536751772232,
          -0.026349480866212107,
          -0.17146790495001127,
          -0.1200847069459728,
          -0.00989355468549761,
          -0.1503045992667869,
          -0.0449963669507997,
          0.10027723089549978,
          -0.1362160925861343,
          -0.09317606158071119,
          0.06874920209058495,
          0.026156541992592205,
          -0.0216103762019019
        ],
        [
          0.031099574146977116,
          0.1323468275879556,
          0.10439286325648266,
          -0.014474280305178356,
          0.1495138382277696,
          -0.13101689366993874,
          0.007668791892550516,
          -0.17894647302039202,
          -0.0725888800195739,
          -0.25313769369104927,
          0.18912830084983226,
          0.16162245347415471,
          0.0917640116452972,
          -0.03708401760723652,
          0.042137340800201914,
          -0.07820938402484705,
          -0.2062889153396624,
          -0.007660819465405892,
          0.08403376991834627,
          -0.010311514841562614,
          0.07387884270292587,
          0.017140514783654966,
          0.0795496732913461,
          -0.12905256343528967,
          0.04066322516766548,
          -0.12291353701754486,
          -0.09987780751020939,
          0.10154664027106637,
          -0.1623922977692229,
          0.07798576425328466,
          -0.06823629553096475,
          -0.06772308551427819,
          0.07880682306815785,
          0.06410840366173472,
          -0.1241974327065627,
          -0.08792288697251181,
          -0.169661114779611,
          0.03265176155795062,
          0.14085815438127844,
          -0.11811086250316773,
          0.014813226951639094,
          0.055901910586302166,
          0.07044446413510504,
          0.0656463048937545,
          -0.02084821278370527,
          -0.038266187991741724,
          0.07375993189138148,
          -0.2264644805052655,
          -0.05774249737558602,
          0.07882635549805206,
          0.08208709360884196,
          -0.11884583834867704,
          -0.000320054626600005,
          0.08062696812704206,
          -0.24935743632814714,
          0.06602328167396895,
          0.0019059310411267,
          0.00828863676388416,
          0.00929121935246164,
          -0.21088253843351581,
          -0.07590213568341428,
          0.007661749804894823,
          -0.002256097192922905,
          0.09729341683001849,
          0.13283220742492893,
          -0.008906736758828875,
          -0.05304824859565748,
          -0.03143461969541996,
          -0.07698408017382423,
          -0.18807319237019038,
          0.04763325797809693,
          0.2503709208472102,
          0.11551999550965655,
          -0.1844912201240338,
          0.09244434503649077,
          -0.13995781047782418,
          -0.054761606007797864,
          -0.2232051604876015,
          -0.0015335423787236216,
          0.05760283737415932,
          0.11864538682592035,
          0.16811006345812485,
          -0.03918408070449084,
          0.01616490580110023,
          -0.1621154798653124,
          0.08366953957322519,
          -0.09439879756906255,
          -0.17020111093248483,
          0.00547952435171704,
          0.254226124188247,
          0.05764591561262556,
          0.018265311373480784,
          0.1279698813631014,
          -0.08409567317854265,
          0.2281744396579609,
          -0.0906472663690568,
          -0.09908839422316318,
          0.028629025396811218,
          -0.033329727497530375,
          -0.14184332324121313,
          0.24295807926609028,
          0.17474138762322416,
          -0.03576225213056465,
          -0.03411627169126658,
          0.10718052618200077,
          0.03066572024973706,
          0.04630740267980725,
          0.03260327594652561,
          0.124349900681717,
          -0.12881724554400448,
          0.07014504011915557,
          0.18656684518635017,
          0.06913505517901425,
          0.0505041905405429,
          0.0124582722496155,
          -0.10682964351795363,
          -0.04633768594369942,
          0.09376489290328077,
          -0.1562017291775654,
          0.11073430644515796,
          0.04896909143136271,
          0.07937239800588088,
          -0.0017225248803163355,
          0.0548348537618086,
          0.01297063678535459,
          0.18959277617143191,
          0.10690114972432643,
          -0.17205521757915468
        ],
        [
          -0.10316260596329492,
          0.0630535003991846,
          -0.029799194072649943,
          -0.02578207858561001,
          -0.024355333545977416,
          0.13127298468284737,
          -0.08451125792006994,
          0.05926940190811917,
          0.1450966729737739,
          0.00013686390134799245,
          0.12775534457495732,
          0.2101305884927388,
          0.022069568923210575,
          -0.17639972648891025,
          0.10473341660890816,
          -0.03388015288067286,
          0.017589052081660204,
          -0.04487771730928755,
          0.02837728990760184,
          0.05897181405110674,
          0.021787502232409373,
          -0.1384114005375699,
          0.09322458249888708,
          0.13819291436845313,
          -0.07474537843624761,
          0.06039784547920007,
          -0.055449595150314494,
          0.09812418811966041,
          -0.28330715880625207,
          -0.06904364777741659,
          0.0606524140436806,
          -0.1429584719903479,
          -0.11510206597991797,
          0.2230668055155894,
          0.09262517801682385,
          0.18133325615683318,
          -0.03546984987873058,
          0.104029359288824,
          0.0016686890641943002,
          -0.03373143273949582,
          0.05759647421289795,
          -0.020483504276908884,
          -0.12032951665097086,
          0.0029174153256435833,
          -0.06814423549583651,
          0.14711660636406182,
          0.1193830498730625,
          0.2592733984369623,
          0.16536165739577732,
          -0.036046854841858864,
          0.17461947109253423,
          -0.005891623843247088,
          -0.1298373467529725,
          0.01985681030000872,
          -0.0790124443442445,
          -0.006329291701026079,
          0.004421687365373297,
          -0.09544030604003327,
          0.052105797499068206,
          -0.06580289455632486,
          0.0934991452881027,
          -0.12287425101445507,
          -0.009558299866168416,
          0.215873146099771,
          0.01856828476271291,
          -0.10433702786828278,
          0.2503557666895009,
          0.18002171271042053,
          -0.001551189936327418,
          0.07231050636214428,
          0.0062641231211842925,
          -0.09465996764832066,
          0.08359411216114834,
          -0.2679530838640723,
          0.042514596531293365,
          0.005764300660070459,
          0.03173716729603281,
          0.02556200861113961,
          0.054292467888318666,
          0.07554852827891827,
          -0.06314446449596775,
          -0.00482218811407049,
          0.22417888766165034,
          -0.23466274859371622,
          -0.12701869335695537,
          0.06457188217427792,
          -0.21813284904933503,
          -0.2046813150853319,
          0.19636003427040222,
          0.09785538149203052,
          -0.3276795199489242,
          -0.013039955390435216,
          -0.04277483931392207,
          -0.17582104428634582,
          -0.17611504639582226,
          -0.09355085791211067,
          0.12147645687458833,
          -0.14792970367069505,
          -0.11461804861025811,
          0.05765967099588475,
          0.25713374730412425,
          -0.007906869692727593,
          -0.165511259753501,
          -0.1320643902860753,
          0.024314259130765837,
          -0.16663935915703942,
          0.11881415826550802,
          -0.09898116861132754,
          -0.04680923585780644,
          0.005866448581842126,
          0.17633966778809756,
          -0.050155908193348364,
          -0.08703870527256584,
          0.11948408131285103,
          -0.051699497372489085,
          0.10781590040641521,
          -0.07926823930853437,
          -0.3261019418662288,
          0.06431199237473376,
          -0.07667007967223118,
          0.04336102645880697,
          -0.003916776566013741,
          0.045043808804649026,
          -0.07802606367772626,
          -0.003027752797918301,
          0.04436272170923335,
          0.2029282719457008,
          0.026041092735123502
        ],
        [
          0.142723361407857,
          -0.2364926577736823,
          -0.1623630916720599,
          0.0033954425911736346,
          0.02521349593393314,
          -0.19357635694518918,
          -0.07347973241585042,
          0.03840991679038421,
          -0.08403298377938194,
          -0.022554768897123514,
          -0.025797114491437224,
          0.036011178517156295,
          -0.03436673987206936,
          -0.10668934050293927,
          -0.0015952429847002614,
          0.24866137833729757,
          -0.03411718752738512,
          0.14836274639507996,
          -0.0513117793195222,
          0.17372624222370975,
          -0.08420019113514644,
          -0.004520998862095597,
          -0.10513957921706203,
          0.10060755818991603,
          -0.07238479266377994,
          -0.10045055251025653,
          -0.24257756792190513,
          0.09228757278322601,
          -0.24407856261517463,
          -0.09079752100709547,
          -0.03307241149180096,
          0.07869457844861241,
          -0.1821555767006985,
          -0.14686037004045815,
          -0.03851713210398025,
          -0.17481670265157473,
          0.21036613301543683,
          -0.06665011208214768,
          0.07972606477888707,
          0.0988954108335919,
          -0.10679189686629757,
          0.2949756072776494,
          -0.08558190467377641,
          0.14914360123522644,
          0.07864213733026831,
          0.13547651995280863,
          0.27196361906310945,
          -0.07471577189763262,
          0.1540461373585081,
          0.09183432119117481,
          -0.020352428253201625,
          -0.14480748188438147,
          0.0662928234383941,
          -0.04443696621595485,
          -0.14984488667346582,
          -0.08899983005498417,
          -0.03429768745048198,
          -0.02222216147741656,
          0.11246870147177616,
          -0.0803724335447627,
          0.13279926954853966,
          0.048705348789214474,
          0.014262732670968274,
          0.1896614229327163,
          -0.14247758245500278,
          -0.0386474101817346,
          0.2729422879709412,
          0.12195806331337408,
          -0.2065626380343564,
          0.043591662657300266,
          0.0840125754928288,
          -0.1367113285853431,
          0.28568413919969915,
          -0.18682172699856833,
          0.04833835622458084,
          0.09689148039166318,
          0.1447729703290209,
          -0.05251723903541068,
          0.06909404077371338,
          0.2446373585876644,
          0.05820123838581914,
          -0.16004917941202995,
          -0.016590233369507826,
          0.24013656569483882,
          0.09872820297032192,
          0.08821384924427847,
          -0.042227215635858614,
          0.04747865863740034,
          0.1895550471899507,
          0.17543755650721443,
          -0.19303482599130156,
          0.22603842988679335,
          0.027578856249698143,
          -0.21946476298318274,
          -0.15904785654915174,
          -0.0823377975521331,
          -0.15949392637574622,
          -0.19761789047907202,
          0.07741691662080027,
          -0.24150361659902017,
          0.13207318367362217,
          -0.028930905660489146,
          -0.10125561717825904,
          -0.3109032157698666,
          0.15670632059925169,
          0.019244079867127104,
          0.31054776484945845,
          0.23774833550988203,
          -0.29574777340856545,
          0.09295771353965956,
          0.20250268477778077,
          -0.038800995416994964,
          0.18655750344686525,
          -0.005499455592188099,
          0.1475066793433356,
          0.15361215398078856,
          -0.010537441506890332,
          -0.2445971242058514,
          0.0876379831470155,
          -0.1004738444505139,
          0.12202750994231855,
          -0.25223023591750526,
          0.2630159169072988,
          -0.13148148789825523,
          -0.18361366090674142,
          -0.13959496896929824,
          0.01657066639029519,
          0.1604028149092309
        ],
        [
          -0.0026428631836053935,
          -0.14672707732032716,
          -0.09105602441008594,
          -0.03279207690702691,
          0.2373638992338361,
          -0.07714717074922742,
          0.012226338184802739,
          -0.13425232443703805,
          0.06030386742513902,
          0.00756237928595691,
          -0.018623295745435302,
          0.10999819535833866,
          -0.08753454922311618,
          -0.07703742113869542,
          0.01267300628500761,
          0.025494641347227957,
          -0.21667124770197518,
          0.07080442408703262,
          -0.044286137314735116,
          0.0859597214545365,
          0.031712355366132615,
          0.02686323150435084,
          0.06632203010339716,
          0.006750699968934092,
          -0.06199979851589965,
          -0.04499382456437266,
          -0.1236044201183218,
          0.10745274304782289,
          -0.21749000784485467,
          0.03022170251506644,
          0.2290068292389747,
          0.15820286274193934,
          -0.089492369190632,
          -0.09906644569337278,
          0.0811236176018953,
          0.060794158468366645,
          -0.0607922469015339,
          0.016268006721399518,
          -0.034192002474489516,
          0.008102234478509959,
          0.051472479677359136,
          0.10757252175048564,
          0.06968345076765989,
          0.11401467996561493,
          0.13178325524619985,
          0.0750477526192325,
          0.13758658923809966,
          0.20272697427009012,
          0.039545189022774235,
          0.01424865314138895,
          0.07901526477221137,
          0.13303589796396184,
          -0.11236489991472974,
          -0.008573091565798356,
          0.13212468482216919,
          -0.2897508805716759,
          0.032584854303605755,
          0.1267265056340837,
          0.14637255141738856,
          -0.02852780291013072,
          0.07004276103864125,
          0.018787589005910113,
          0.010077613167153283,
          0.2383071177044403,
          -0.030484260913699133,
          -0.06119046561998846,
          0.1837506432788295,
          0.05644500158617058,
          0.02498690689196187,
          0.0060311898110119,
          0.048964318802135406,
          0.09166606936700915,
          -0.06563994207605534,
          -0.1974946239123639,
          0.12550955754912915,
          0.21653902957116286,
          -0.13522134876490527,
          0.08003177221498498,
          0.18044200328770918,
          -0.0022269517435052713,
          -0.03856048896659554,
          -0.06732487506151551,
          -0.013991214992450622,
          0.15495172181376357,
          0.060727829283873457,
          -0.1125312146593967,
          0.12820926376442648,
          0.008651754371386407,
          0.08331549179716502,
          0.0571180722950105,
          -0.17505188722605902,
          -0.07124188481969305,
          0.14706824671699845,
          -0.09847611537202185,
          0.028586882036741795,
          0.055981556827669504,
          0.1836547756706043,
          -0.3271306675577993,
          -0.004679631646412124,
          -0.23340387645228958,
          0.10301450006161739,
          0.05616165416664835,
          -0.011495400938411464,
          0.07404430082968663,
          0.06148804953136941,
          0.16496443162858157,
          0.08878678354414783,
          -0.014456586098314815,
          -0.08694686926983418,
          0.01592104769580007,
          0.12475482764660834,
          -0.04129995092251971,
          0.26198678037374906,
          -0.10087187971035999,
          -0.03140357963325371,
          0.1913948759659756,
          0.00610620708585032,
          0.16885023434106317,
          0.1570975456758422,
          -0.12736470634362956,
          -0.022583593543688215,
          -0.2903793037283815,
          -0.005064635253234709,
          -0.06080807544816299,
          0.19705081268658323,
          -0.10122101280083677,
          0.1209453499993625,
          0.010074279492146948
        ],
        [
          -0.16187550209352713,
          0.04693753906295074,
          0.04292645774829448,
          0.02443186170530507,
          0.09668466061162354,
          -0.03367712881707596,
          -0.10298695876076941,
          -0.0929768477847641,
          0.15775238874738431,
          -0.13001812630899243,
          -0.13651538578855069,
          -0.018990080259566573,
          0.02324366076478102,
          0.06639759275091554,
          0.011697135827836472,
          0.06120767379535624,
          -0.08116852686823905,
          0.09614876545460671,
          0.18780111948690836,
          -0.10262153254732376,
          -0.04990474921694106,
          0.1299820060857317,
          -0.12825087361711107,
          -0.05782374086697484,
          -0.13735344344546108,
          -0.07827306936942674,
          -0.009646936913887497,
          0.09038920516961661,
          0.029187960947245947,
          -0.13422479632525414,
          0.009707989906490369,
          -0.08530241359349856,
          0.11464847185597225,
          -0.012233515109580454,
          -0.13818101954878015,
          -0.09749368180590982,
          0.08229319170863249,
          0.00706618084076366,
          -0.08415300981989954,
          0.1669339863091466,
          0.047781606827480866,
          -0.0427562029347123,
          0.04731700200544293,
          0.17054810285486277,
          -0.08826681818936984,
          0.15794735880213526,
          -0.03374698848843521,
          0.1560778075754948,
          -0.0797933752982488,
          0.09079741705614214,
          -0.0740532395094757,
          -0.08473209291927113,
          -0.046799666001646784,
          -0.0798004432343197,
          -0.050916032341728396,
          -0.08986257890140675,
          -0.01222657511856343,
          0.07655591178381849,
          -0.10047518046157018,
          -0.09733132280906304,
          -0.18955724113484496,
          0.015804451286452734,
          -0.06433959998983294,
          -0.02570582846182929,
          0.12112947656604145,
          -0.057212922475968875,
          -0.03933185697061171,
          0.23837431129816686,
          -0.2162696924633218,
          0.05484484954854855,
          -0.07991912556075645,
          0.04198950426321571,
          0.12315893445159909,
          -0.06627457432315428,
          0.16298935652999227,
          -0.08072118800458172,
          -0.02481580362453982,
          -0.11865644680134951,
          0.0422118437696268,
          -0.16463588225789494,
          0.04803892194560433,
          -0.15464087588562925,
          -0.0771143544391279,
          -0.018587292398287,
          -0.010417907277087517,
          -0.04613458291565198,
          0.027827454463416657,
          -0.132492681731835,
          -0.01009784136091683,
          -0.036663200235682473,
          -0.17231238079353595,
          -0.011348693364494698,
          -0.10047685662143978,
          -0.00804787985281394,
          -0.04605569912350524,
          -0.10986290469629348,
          0.00908194838760385,
          -0.01095478229041687,
          0.06584865524076154,
          0.22303210873740312,
          0.10234910110536033,
          0.07768870136193902,
          0.38505999819722914,
          -0.11142546137396568,
          0.056467396695273266,
          0.11317264191943431,
          0.044238142198591186,
          0.003112513093970593,
          -0.12146276350578372,
          0.003007903018657377,
          -0.0453939712826608,
          0.003477783069377149,
          -0.010360757136483672,
          0.1315407946792627,
          0.011781152337637298,
          -0.14677687885159885,
          -0.04983388031671916,
          -0.03310916520698142,
          0.0427520086733523,
          -0.19346475182538267,
          0.1508093602081655,
          0.05960206368060607,
          0.2066484214629056,
          0.1016109703073495,
          0.060988693661244577,
          -0.0732522414139051,
          -0.0882301636710655,
          0.09604167567040897
        ],
        [
          -0.012673277106608661,
          -0.016997283561831226,
          -0.009070477442997068,
          0.09454988881214196,
          0.04446218524027784,
          -0.013593184194825593,
          0.04617404262285093,
          -0.04787211355573638,
          -0.026013766933478944,
          -0.036760668364288145,
          -0.06482947455907039,
          0.15294910487513474,
          -0.28552110337821224,
          0.014587999246897297,
          -0.1703904324852349,
          -0.05791650464540826,
          -0.15194627963905546,
          -0.15130905488881322,
          0.021236156021924024,
          -0.059451682500539206,
          0.07699432587570776,
          0.06782865254019314,
          0.026054182830419815,
          0.12523691897721248,
          -0.11748953621164063,
          -0.02303503750222821,
          -0.024166003299561676,
          -0.08238158900475002,
          -0.06478737299026188,
          0.0927330664782861,
          -0.059035105898756636,
          -0.14307569496649605,
          -0.08712321024024942,
          0.06913883571827709,
          -0.07854379148524106,
          0.15104516346785446,
          0.005412951863791527,
          -0.08175303357241424,
          -0.14700477617312105,
          -0.19616688177647099,
          -0.041400269450925266,
          -0.049837011234750414,
          0.010332173625414331,
          -0.15009285460836563,
          -0.011816638429497903,
          -0.07416570977624558,
          0.02166315776423708,
          0.048305549723707784,
          -0.1291247436017154,
          0.0453922515431823,
          -0.12336290477757456,
          0.015900559566328003,
          -0.08608492342689,
          0.0915649018204428,
          -0.1465786433114324,
          0.048466030722914596,
          -0.008063644985762482,
          -0.05624793392542313,
          -0.018281429312407817,
          0.09412167361019816,
          -0.050861607989587256,
          0.12238399882423423,
          0.0593190999039927,
          -0.027961513346564035,
          -0.06021777807048975,
          -0.014286753150771735,
          -0.16893846368930593,
          -0.09515783176737769,
          -0.09714512132253214,
          0.017510583812662673,
          0.012347762118293006,
          0.058488044274458174,
          0.01482401449304498,
          0.12866741366292955,
          -0.07051828775563942,
          -0.1346058453590665,
          -0.011417271119054283,
          0.12667104816333463,
          -0.07596471702235691,
          0.11575705654388367,
          -0.0019605252949608186,
          0.01265209455816316,
          0.11725022983642266,
          0.0305923714744818,
          0.19518719068016588,
          -0.10574873009374451,
          0.0791333893036711,
          -0.045628606609199124,
          -0.0001550664592300473,
          0.2201890895470777,
          0.0921215890700667,
          0.02092929945367264,
          -0.011802931951243293,
          -0.022052175662606324,
          -0.06284781219292082,
          -0.17463366017957815,
          -0.049888401151141126,
          0.07135198348381337,
          -0.054825228983061684,
          0.13416071070019722,
          0.021049532875192768,
          -0.0743305327724018,
          -0.15989151764954174,
          -0.06225162329602151,
          0.047802011291806445,
          -0.11496162190125392,
          -0.017011566664392578,
          0.06629081679687875,
          -0.06654454717295481,
          0.12244505180348615,
          -0.05714053220816309,
          -0.16215280842089236,
          0.08681274182161945,
          -0.015354878240556478,
          0.10647802738418884,
          -0.05305627680717622,
          -0.026554931694847433,
          -0.16361883488019066,
          -0.2055828765953263,
          -0.03240541280914763,
          0.13354815976628373,
          0.10577678434028569,
          0.026682818573816422,
          -0.13945238876231647,
          -0.020556878954641023,
          0.0042916309923748735,
          0.07336372724550798,
          -0.12509925956084908
        ],
        [
          -0.12430983300790377,
          -0.04892717169474719,
          -0.0012475136011016246,
          0.0975121871049055,
          -0.19669565235964415,
          -0.0482251212935408,
          0.051053623381307284,
          -0.07955936584297393,
          0.09726000017088995,
          0.11710984473255137,
          -0.07327824198919508,
          -0.16743842683614937,
          -0.05571057000953801,
          -0.08818841359957573,
          -0.0180835317769265,
          0.012169232774827298,
          -0.13297963727964493,
          -0.03937575144533295,
          -0.21101619617288325,
          0.1992879844981965,
          0.07965728647745227,
          0.013588323352864147,
          0.0011990301419030208,
          0.04341470000011375,
          0.03154424412200221,
          -0.0011200589605941888,
          0.06941107835831462,
          0.23180512266588238,
          0.051221832410632696,
          -0.06742520924754324,
          0.07749936164875282,
          0.0680563592122284,
          0.08289083757872834,
          0.06099794013090912,
          0.09973372741692291,
          0.24103892761841644,
          -0.30705579472329353,
          0.012401165010644942,
          0.18790043133940681,
          0.032385258773367696,
          0.03380007942494285,
          -0.002671645619327501,
          -0.1634557081075405,
          0.039457365928889834,
          -0.12615522371601215,
          -0.02103129937086939,
          -0.1659610848264087,
          -0.16862596522806506,
          0.0807641434564898,
          0.1667073484195609,
          -0.053733240372162906,
          0.16701422913883737,
          0.07558570820951836,
          -0.013442589228720115,
          -0.13846678310457303,
          0.07232792184977986,
          -0.1175131374728819,
          -0.03275147507527251,
          0.0034239280163676496,
          0.020523624091468004,
          -0.11960988452745275,
          -0.01129227551493537,
          0.18392716823242938,
          0.018850440091321596,
          0.05682059455156721,
          0.0035153893937940523,
          0.14415113518784434,
          0.010095586123359675,
          -0.10091060761999447,
          0.02752110333935448,
          0.027490575951243323,
          -0.10241386061718155,
          0.02331875811108608,
          0.022993637840293124,
          0.10370835994616374,
          0.03793885595688948,
          -0.021637203855693975,
          -0.1498104597619235,
          -0.0709118218879524,
          -0.027253591261422884,
          0.13521907052800577,
          0.0988713452728935,
          -0.019919851223139714,
          0.05954511916252793,
          0.04451535752521929,
          0.1318938093412571,
          0.057431262634702766,
          0.27059043126749305,
          0.07826178960512753,
          -0.23168270300986205,
          -0.1532656183422365,
          0.02796383553762706,
          0.08553970406710999,
          -0.022452794984898834,
          -0.02045795474598651,
          0.12809786556931377,
          0.04959571243243193,
          0.02868658447027942,
          0.18866378061789266,
          0.032563634833342896,
          -0.022879014268550636,
          -0.01710637149878514,
          -0.032602171043856785,
          -0.02900389847547832,
          0.0012320373920999162,
          -0.10960159692411425,
          -0.005747797966247275,
          -0.15185061913454048,
          -0.08967845927631432,
          0.04102860664748202,
          -0.009271970226125739,
          -0.006794038419209414,
          -0.09406493628545932,
          -0.09775037235951262,
          0.10630124559186444,
          0.052776892676393294,
          -0.109699989292788,
          0.08440335531747034,
          0.036471690635194336,
          -0.014626868389093273,
          -0.020059140264697652,
          -0.05078698317363394,
          -0.1189851844019928,
          0.052821085934607076,
          0.09174927733119452,
          0.18053737826180882,
          0.05575748530061833,
          0.17996100197014203
        ],
        [
          -0.04874639542713366,
          -0.12246599306396536,
          0.13099043469529945,
          0.02156978442572569,
          -0.1696124836123383,
          -0.19374695395739538,
          -0.12274407814871205,
          -0.08975805523335216,
          -0.04751462981142896,
          0.0031485983853724465,
          0.15646967963509334,
          -0.134043824632008,
          0.17357935950720405,
          0.0013974128893011865,
          0.19576742229016536,
          -0.15322900115028107,
          -0.07132205183264928,
          0.06504420625781214,
          -0.09513586114137629,
          0.009126793610745086,
          -0.10776414547161922,
          0.06359925865795275,
          0.1263617977110404,
          0.0627045368389371,
          0.07111951328067567,
          0.14674000751461935,
          -0.2076035641284082,
          -0.04049400373384252,
          -0.06712389894100913,
          0.1458389014516587,
          0.05828573494202204,
          0.12339514682393832,
          0.07194297928696297,
          -0.09863879642775122,
          0.14489788166144443,
          -0.23415788943337656,
          -0.12745648233788592,
          0.07057430476382569,
          -0.052652701578046926,
          -0.10560351619079866,
          -0.0837921083296293,
          0.22792403485852475,
          0.14217203020484412,
          0.2198768942890562,
          -0.01154634979073578,
          -0.04177192957301077,
          -0.05804008011133013,
          -0.058900225071619454,
          0.13628337365119994,
          -0.19448559750552283,
          0.15423573591504813,
          0.11774779921907391,
          0.13607057917806456,
          0.05153435756614279,
          0.012013217184704699,
          -0.05655064622221301,
          0.011871574861400527,
          -0.07469787303838446,
          0.09940116239238803,
          0.11951098420911033,
          -0.07418425635240669,
          -0.07945273982695521,
          -0.05073274796600356,
          -0.14805689151025095,
          0.02885904887127151,
          0.05157657842675215,
          0.02030308545899273,
          -0.036994843936882044,
          0.031488960292552194,
          -0.033970598279421345,
          -0.057478435303526226,
          0.03371588005948536,
          0.04786720416937589,
          0.03865378464147954,
          0.041775774695583204,
          -0.02737277720328289,
          0.15713243283014666,
          0.056397320489037256,
          -0.12249238397315017,
          -0.029433914302553987,
          -0.015908850377806077,
          0.08137386098412225,
          -0.13814390603068724,
          -0.033508162011444624,
          -0.011249086193298561,
          0.01600391174977007,
          0.13921521290028196,
          -0.020061597814790257,
          -0.05229389838760014,
          -0.005467874332044589,
          -0.13824147157680386,
          -0.015081869368449777,
          0.10762030244301966,
          -0.060638235546697776,
          0.1171006098793688,
          0.26305086423685636,
          -0.09271856218767541,
          0.03134246049091048,
          0.16684160261915526,
          0.09370970590792055,
          -0.004697669146658838,
          -0.08765179012313346,
          -0.12809779930992013,
          0.009468205777686145,
          0.11611220607030584,
          0.03539654699551328,
          -0.04182442793268853,
          -0.03618151903203154,
          -0.0290041771206863,
          -0.14150723309084864,
          -0.0789663811378712,
          -0.123036287370374,
          0.009414635614635776,
          0.21130596171207772,
          -0.06524812570185176,
          0.029723384071403694,
          -0.05440381204537173,
          0.12775676528507982,
          -0.048602737378195676,
          -0.030011608025361854,
          0.04587811095566702,
          -0.038363911636840935,
          -0.012094021550929587,
          0.10537751468126194,
          -0.11212619499251496,
          -0.022334136842095644,
          0.1195581344094711,
          0.032002769356052
        ],
        [
          -0.06694765484733549,
          -0.10538137558428043,
          -0.17298233797873744,
          0.026213637091517035,
          0.08417482858843242,
          -0.08616731669223379,
          -0.031798152357428354,
          0.17396491321418484,
          -0.05924623810778602,
          0.12712679184785677,
          -0.09500722396211136,
          -0.030523505483481567,
          -0.04472209939873998,
          -0.0941982301207371,
          -0.04384045518723024,
          0.09817350482777404,
          0.09570508192635238,
          0.0924679452058429,
          0.07252315376547123,
          0.12077475517719201,
          0.026271252135832618,
          0.08649238654948449,
          0.06957288032086018,
          0.061340434464539996,
          0.14850418944317956,
          -0.01331302126769215,
          0.15925890350611147,
          -0.015099538121886162,
          0.12740760348981436,
          -0.027300253330972787,
          -0.16943919266750807,
          0.1775980146969313,
          0.0028358485182768418,
          0.027714474236495652,
          0.04629595183943457,
          0.14972688112101923,
          0.009636047773601492,
          -0.009326099082045005,
          -0.04785996298893291,
          0.08595632320567716,
          0.13224118280362845,
          -0.27481573094030687,
          0.18736394164315714,
          0.15674842047284018,
          -0.14679776465913238,
          -0.01645445282687821,
          0.014249009787885692,
          -0.013135076215508721,
          -0.0748642755101694,
          0.14342551004507062,
          -0.02054155803205047,
          -0.07839563282918632,
          -0.03591219857946305,
          -0.02488462584816348,
          0.11295912058909895,
          -0.06330392611146302,
          0.208382478201189,
          -0.17178918406138868,
          0.01800017894828201,
          -0.054940855816322576,
          0.0631554969476136,
          -0.15699349665385035,
          -0.15218656964940805,
          0.0001547447178366216,
          -0.06771430372679878,
          -0.00902151400141804,
          0.04736633519412283,
          0.11128573070205722,
          0.011367461995780882,
          -0.034523327103198824,
          0.01972540491219007,
          -0.007231961318021059,
          -0.2424624150513336,
          -0.13931492402313936,
          -0.08022547601048487,
          0.15454469978758933,
          0.01601790695747392,
          -0.03969213983703777,
          -0.023748525238458093,
          0.018819666844752888,
          0.10970560775547611,
          -0.14034174978442276,
          0.028451365160290416,
          -0.2496860601656332,
          0.0824485961134298,
          -0.05877106392562742,
          0.06327584650082117,
          0.007147908007266998,
          -0.17539368327979432,
          -0.10254920125566443,
          0.05314939639225287,
          -0.01552031546613105,
          0.10381230504418174,
          -0.1040327712872527,
          0.06880201135502433,
          0.0468751413533416,
          0.0349246054651236,
          0.01984167259324178,
          0.10935332939573389,
          -0.07518187241739233,
          0.0794583060715312,
          -0.06377843293665425,
          0.020431381958560882,
          0.15564333092562843,
          -0.03607606710664251,
          0.07116961581865477,
          -0.014008668124424296,
          0.02458095982902833,
          -0.030399011281727308,
          0.0017719055934003912,
          0.08167129073274997,
          -0.109148242695508,
          0.056674977262052555,
          0.03267034906025889,
          0.07554745731778328,
          -0.046605128338363194,
          0.08329829543154404,
          0.03991374411360432,
          0.02161703278932263,
          -0.012496274173452924,
          0.17165058623357932,
          0.1322139052441725,
          0.033819575406666774,
          -0.03590800556792103,
          0.040692953267861966,
          0.002640165205393395,
          -0.021442240447222732,
          0.007801160059505871
        ],
        [
          -0.10878032336692973,
          0.06545766969832716,
          0.05106612807198786,
          -0.013042705441897269,
          0.051167103222374444,
          -0.02910798641262016,
          -0.08888223808610142,
          -0.13247325688051392,
          0.013941080307900929,
          -0.1149407025549018,
          -0.05365865823726537,
          0.10066646991980513,
          -0.12473818058929581,
          0.1337236089242034,
          0.04587948756900735,
          -0.07246018635877409,
          0.005259049400612583,
          -0.03680074829353546,
          0.02939562680495794,
          0.040567116737804096,
          0.07927720506588443,
          -0.018490475559548757,
          0.05676247263535603,
          -0.09511121530091336,
          0.052953792090082025,
          -0.1515886413403485,
          0.13115162367041852,
          0.05302456860563481,
          0.14086259587480718,
          -0.024560734824373508,
          -0.16316564443714326,
          -0.1510198061051709,
          0.13220490256298006,
          0.1909598510270912,
          -0.09811473655598905,
          -0.10455735905743112,
          0.04439801080391594,
          0.03281216688199431,
          -0.02373482449729787,
          -0.05290289984423766,
          0.09502081790109607,
          -0.005097943375501964,
          -0.04870090000561697,
          0.024247891762332222,
          -0.009919435893620522,
          -0.1959056168254304,
          -0.027452460486154864,
          0.07572582186192182,
          0.20834369741208114,
          -0.03125577258787329,
          -0.11435149900542285,
          -0.03301450372220545,
          0.05723605847148501,
          0.04119444098219919,
          0.020784099625385064,
          -0.0583283528706407,
          -0.06354730031932704,
          -0.09177166795821345,
          -0.1342037187095768,
          0.07291206054638975,
          0.17053089969123458,
          -0.12170144454595072,
          0.17608436694797805,
          0.19219258951905904,
          -0.04128588870997692,
          0.09779817521927067,
          -0.0005199672381449865,
          0.2849118596718717,
          0.03538417646125306,
          -0.11391726518478029,
          0.1631986202776484,
          0.020660491632798275,
          -0.019886378309568246,
          0.043943205522326986,
          -0.19090108702207878,
          -0.23172489101038365,
          0.011625957065040769,
          -0.02444948148838672,
          -0.008496529542175646,
          -0.1537939758958491,
          -0.12076646156809197,
          -0.01573416789959796,
          0.3145817886052299,
          -0.08408138910294877,
          0.012154217533606904,
          -0.031142894748483405,
          -0.08161312671694948,
          -0.003188840747776866,
          -0.03715812433102092,
          0.06291601220917195,
          0.12458507311245846,
          0.022598756284774035,
          0.04153794877010536,
          -0.0004267966273770556,
          0.08400992451654699,
          0.05143266931624238,
          0.16598480256904177,
          0.11583434508371436,
          -0.012445831610522899,
          -0.022477133313338782,
          -0.1512015802162813,
          0.020089795384173072,
          -0.009696273515231703,
          0.06432986934989347,
          0.0641628711400342,
          -0.06204949515864136,
          0.07856518806061875,
          -0.02903751113307583,
          0.00476983274009222,
          -0.07310086651160745,
          0.030085477142719946,
          -0.0678567370560168,
          0.0341828557532413,
          0.11675348197952735,
          -0.13865564666212646,
          -0.059663133520932145,
          0.04353923541192074,
          -0.1264371680621493,
          -0.00023028360081037472,
          0.07086162745791554,
          -0.06673704028923544,
          0.1128776314191434,
          -0.1771383867736042,
          0.062263225168735864,
          -0.02217328668499121,
          -0.009504930984926295,
          0.041396238954275105,
          -0.10883459765110526
        ],
        [
          -0.03165007858909935,
          -0.15569599548901275,
          0.06681839501037774,
          -0.05045692668313624,
          -0.04641469512545454,
          0.013944021525279333,
          -0.0802264252712056,
          0.16735051666466857,
          -0.10690099739536917,
          -0.0863945275041846,
          -0.05710943278969826,
          0.0006233599565574437,
          0.0298568422053623,
          0.010814744677795174,
          -0.029928480436159734,
          -0.07692409851945796,
          -0.08261075143540275,
          0.11872733577816422,
          0.04160562224291242,
          0.08640399274334648,
          0.08189927439391019,
          -0.14177018580617032,
          -0.1960174972493789,
          -0.022105048689774653,
          0.03939205376393299,
          -0.013541597131998673,
          -0.030834549157925828,
          0.0017594591947039991,
          -0.04824392196699964,
          0.1082378058060709,
          -0.13890460757439957,
          0.041237181320009524,
          0.12738568330731512,
          0.059611942411540324,
          -0.055751896654890734,
          0.10810446722070213,
          -0.03262680433063419,
          -0.12650911992387773,
          -0.08073417089176929,
          -0.19795796787164596,
          0.06617257383945331,
          0.011180028043507465,
          -0.0600538399188578,
          -0.026605091617855393,
          -0.08232290908755818,
          0.06167163487493649,
          -0.15093398255531354,
          0.04542988195650616,
          -0.12858042779919923,
          0.05339672769086937,
          0.10590363052169237,
          -0.14618769375957902,
          0.1259696499384138,
          -0.03568380240366358,
          0.1296430290024087,
          0.013107549790785648,
          -0.1279436267439844,
          0.03206868876256135,
          0.022284836996687672,
          -0.21139899018850397,
          0.11301152681528859,
          -0.007166210181414708,
          -0.03168670377333079,
          -0.09631294893249348,
          0.09626528956518438,
          0.06703039015522652,
          0.007662521910326884,
          -0.0020343461673759775,
          -0.11505927006485664,
          -0.15563297894243358,
          0.001188456060730013,
          -0.05240888229750982,
          -0.1797680490394509,
          -0.04545271994555795,
          -0.02738355301655525,
          0.18441290840276664,
          0.137480713515951,
          -0.22009159527136504,
          -0.07206354604275547,
          -0.15457957657426807,
          -0.020048405021788764,
          -0.17161345281677232,
          -0.24445413666104365,
          -0.019250804868361594,
          0.012495537851426668,
          0.07650365831088671,
          -0.052601763700532156,
          -0.1344233532874672,
          0.08028808769185193,
          0.017288490309264243,
          0.0053602384607861625,
          -0.04427391336603635,
          0.0992555712718433,
          0.03787707738055054,
          0.024178656191352496,
          0.1023772935991853,
          0.11374560033718657,
          -0.17820673101575427,
          0.13947063071533491,
          -0.11405233595313378,
          -0.06494967756622033,
          -0.14771305059263823,
          0.017265567867963395,
          -0.0348708153648277,
          0.02252128710442291,
          -0.11191471554573279,
          -0.01973631730484511,
          0.06778545721863434,
          0.08575279520644552,
          -0.08271591350159496,
          -0.0023291960992786803,
          0.08271452123313167,
          -0.08905806752192941,
          0.08905810753504877,
          -0.10449498260587507,
          0.04281025198482066,
          -0.058987745208869215,
          -0.0801399910891932,
          0.017853606340899143,
          0.1944272347837889,
          -0.09917249900866859,
          0.0037539409400507637,
          -0.14764202933426893,
          0.1327622341730551,
          0.04544705864536611,
          -0.057479258991025343,
          -0.1280006142037451,
          0.057511075762681434
        ],
        [
          -0.021273661405874816,
          -0.036320344021292264,
          0.07087468400573826,
          0.017689701556779108,
          0.016187673634208373,
          -0.07539528949186113,
          0.03236275001137915,
          0.04581459519972758,
          0.00522435503967695,
          -0.05479062905413876,
          0.04338892589180752,
          -0.12075753985316623,
          0.005207851254774748,
          -0.16146113325541805,
          -0.03354727670132076,
          -0.10817448642727501,
          0.03673204491937804,
          -0.004498039851308268,
          -0.06712016719492506,
          -0.1071276002272368,
          -0.052973409177873604,
          0.10974977977718786,
          -0.004048380016638805,
          -0.1776551373207625,
          -0.017413404117183614,
          0.15927061056764732,
          -0.05401149984170021,
          -0.17777865996758346,
          0.07687122175404083,
          -0.05175549859026706,
          -0.09763921089246032,
          0.18715509246837947,
          -0.01573508136268416,
          -0.08036617324566292,
          0.00937563104063626,
          0.03072788241073403,
          0.04957637397254286,
          -0.03950760349235281,
          -0.08869736439537781,
          -0.09991369730013831,
          -0.02255582883469777,
          -0.06564375935554882,
          0.1424366788201452,
          0.007765166662774176,
          0.013611514754619228,
          -0.032455664546627516,
          0.16622544645087936,
          -0.14455387716841744,
          0.016726234627477236,
          0.15596421694635837,
          0.02949733363481787,
          -0.10173162716891063,
          0.24957440706206208,
          -0.013673210629641164,
          0.19441939690140242,
          0.10025486837476619,
          -0.11909738230538192,
          0.10908164288208769,
          0.15671138775156487,
          -0.09520890196222433,
          0.026331927583447653,
          -0.05473010504574682,
          -0.06037837022347669,
          0.07165855263819007,
          0.12455903112421599,
          -0.021403002683497735,
          0.1672363482596439,
          -0.10008075068260976,
          0.06825026577011882,
          0.10821422779565684,
          0.020421102648231923,
          0.12454767440883913,
          0.027230928336765478,
          0.01681775361497045,
          0.1843214012969121,
          0.019059356161485304,
          0.13461806871608842,
          -0.12287698584391878,
          0.05085762487670706,
          0.0676333752999736,
          -0.0162893263991343,
          -0.06853306995182655,
          0.021386716373554385,
          -0.03930183010376703,
          0.02105477083788294,
          0.00505653119735992,
          0.024746939115027497,
          0.09456090511304285,
          0.12616077516689425,
          -0.07679969579653231,
          0.02001202670748714,
          0.199001644891143,
          -0.07607965769045899,
          -0.14469139284178853,
          -0.06285041340811325,
          -0.07051643290374789,
          0.06003796772544661,
          0.10941771829654295,
          0.02336961960931719,
          0.108528225120184,
          0.025729012203728287,
          0.021364318658667496,
          0.14487880386273083,
          0.06134217274293618,
          -0.11006392832699925,
          -0.014782466699187142,
          -0.14476220141502424,
          -0.09582815147150296,
          0.18516878300474293,
          -0.15360106381386013,
          0.1713217420235575,
          0.050889378652894716,
          -0.3020374968978486,
          -0.012129907259716318,
          0.06594905310856983,
          -0.015283223089870943,
          0.045363551008238044,
          -0.14472095360789386,
          -0.03900025373040274,
          -0.09510884854978792,
          -0.025909921127086497,
          0.05388660800879025,
          0.06576675144232351,
          0.01973763921583537,
          -0.06901415014444777,
          0.05150531971057209,
          0.0079055102988144,
          -0.020403136918184683
        ],
        [
          -0.06396165101851005,
          -0.10386061115924797,
          0.06343583453282196,
          0.06554902625976698,
          0.10065800696015675,
          -2.6275899722866893e-05,
          0.07776444701694532,
          0.07436487937798672,
          0.12636895851423788,
          -0.013733453617493112,
          0.07526231307906187,
          0.09431040566143739,
          -0.0876088876815543,
          0.13244748498154518,
          0.08112335195237606,
          0.03759971580953867,
          -0.03697119094115368,
          -0.07045005745947283,
          0.06265694284829779,
          -0.0005062440703136001,
          0.01047378567792215,
          0.024548940709667302,
          0.12469929085934227,
          0.07089917273088621,
          -0.07395199224334553,
          -0.020718645164774487,
          0.06820286797669757,
          -0.09208760650823918,
          -0.1989045723399022,
          -0.07754055200938449,
          0.017376735860942627,
          0.05451363574394366,
          0.08622382496310305,
          0.00012794096986275757,
          0.15960383728453292,
          -0.15259193718267958,
          -0.14976511327831457,
          -0.05584383465785922,
          -0.03197346371269066,
          -0.14130063057175657,
          -0.12608467488554384,
          0.07284120090991343,
          0.0012328222965833542,
          0.06726201156962977,
          -0.10574057167582895,
          -0.02782714111545896,
          0.055097455667980716,
          -0.04338598223697445,
          0.0937941057600071,
          0.0671600552608966,
          -0.2140213914150514,
          -0.023565627475694628,
          0.1893379406268299,
          -0.0310790222889289,
          0.0548311523244962,
          0.1716072120772864,
          0.07335920411039776,
          -0.08825299102114069,
          0.1360540611744719,
          0.017577725437232634,
          0.03280773059766249,
          -0.015206135354462481,
          -0.042772502779049905,
          -0.05825758168611962,
          0.09415098232758176,
          0.04321614375895658,
          -0.018929487797773724,
          0.13033631565761178,
          -0.018888130296588135,
